#ifndef TINYBERT_WEIGHTS_H
#define TINYBERT_WEIGHTS_H
#include <avr/pgmspace.h>

#define HIDDEN_SIZE 312
#define NUM_LABELS  2

const float classifier_weights[NUM_LABELS][HIDDEN_SIZE] PROGMEM = {
  {0.014276f, -0.013086f, -0.024309f, 0.004335f, -0.019628f, -0.012763f, 0.033245f, 0.004497f, 0.023144f, -0.001999f, 0.011711f, -0.002165f, -0.041075f, -0.046273f, 0.035646f, -0.001169f, 0.001790f, -0.023235f, 0.015226f, -0.004573f, 0.035264f, -0.020527f, 0.019045f, 0.030773f, -0.002208f, -0.016221f, 0.011351f, 0.021220f, 0.001969f, -0.008091f, -0.022736f, 0.002905f, -0.007976f, 0.024162f, 0.012117f, 0.040940f, 0.007510f, 0.008368f, 0.026725f, -0.015755f, -0.005026f, 0.008202f, 0.004858f, -0.010892f, 0.021142f, -0.040293f, -0.000630f, 0.026493f, 0.019582f, -0.029549f, -0.010835f, 0.008903f, 0.023147f, -0.006112f, 0.010805f, 0.022399f, 0.004788f, -0.053491f, 0.000749f, 0.006667f, -0.014203f, 0.031906f, -0.038063f, 0.001127f, 0.016352f, -0.009592f, -0.004438f, 0.031131f, -0.053163f, -0.011891f, -0.020244f, -0.021413f, -0.014827f, -0.014040f, 0.001684f, 0.019390f, -0.019863f, -0.022343f, -0.017816f, 0.047539f, 0.011497f, -0.020504f, 0.014481f, -0.033506f, 0.004509f, 0.001381f, -0.012620f, -0.020221f, -0.002595f, -0.013487f, -0.014356f, -0.023763f, -0.002633f, -0.007521f, -0.038348f, 0.032321f, -0.030869f, -0.043509f, 0.009795f, 0.010129f, 0.003874f, 0.020356f, -0.000918f, -0.023453f, -0.000989f, -0.011859f, -0.013646f, -0.010649f, 0.002620f, -0.007303f, 0.047383f, -0.028531f, 0.003090f, 0.006977f, 0.027372f, -0.001137f, -0.004428f, -0.002350f, -0.008873f, 0.006023f, 0.039834f, 0.004842f, 0.017239f, -0.019650f, 0.003256f, -0.023338f, -0.011356f, 0.008251f, 0.020659f, 0.004567f, -0.004915f, -0.019808f, -0.025062f, 0.000082f, 0.004562f, 0.018013f, -0.029835f, 0.003192f, 0.030793f, 0.025737f, -0.008641f, -0.010502f, -0.042273f, 0.018340f, 0.019158f, -0.033316f, 0.000949f, 0.014306f, -0.013516f, -0.008932f, 0.023808f, -0.012387f, 0.036351f, 0.037780f, -0.008064f, 0.014058f, 0.006486f, -0.015372f, -0.053504f, -0.036732f, -0.027229f, -0.009283f, -0.009042f, 0.004369f, -0.015730f, -0.020315f, -0.025331f, 0.000474f, 0.016848f, 0.002011f, -0.017170f, 0.009543f, -0.005799f, 0.014986f, 0.021218f, 0.000223f, 0.007058f, -0.001950f, -0.016816f, -0.036299f, -0.022943f, 0.027995f, 0.004079f, 0.016380f, 0.019174f, -0.005342f, 0.032224f, 0.008678f, -0.007283f, -0.007328f, 0.012010f, -0.007996f, 0.015664f, 0.010554f, -0.005882f, 0.019126f, 0.002166f, 0.005945f, -0.003594f, -0.052970f, 0.012431f, -0.040630f, -0.005446f, 0.013831f, -0.024433f, 0.024807f, 0.013546f, -0.029185f, -0.022806f, 0.002722f, 0.005491f, 0.037213f, -0.006675f, -0.009965f, -0.016943f, 0.048006f, -0.000213f, -0.028578f, 0.014246f, 0.011981f, -0.000317f, 0.005654f, 0.027877f, -0.013740f, -0.020516f, 0.029262f, -0.031948f, 0.009851f, 0.027942f, 0.002091f, 0.011873f, 0.006572f, -0.020288f, 0.004017f, -0.008555f, -0.024465f, -0.024579f, -0.005761f, 0.009903f, -0.007165f, -0.028004f, 0.022674f, -0.007902f, -0.040054f, -0.010777f, 0.041914f, 0.003274f, 0.023432f, -0.007921f, 0.001379f, 0.026498f, -0.007879f, -0.015981f, 0.021213f, -0.014111f, -0.010324f, -0.039564f, 0.007844f, 0.021398f, 0.024695f, 0.049752f, 0.050873f, 0.001630f, -0.012137f, 0.008393f, 0.006995f, -0.015297f, -0.030635f, -0.036850f, -0.006461f, 0.006376f, 0.018078f, 0.003624f, 0.007140f, -0.034787f, 0.013440f, 0.008688f, -0.032753f, 0.010210f, 0.009499f, -0.016646f, 0.005565f, 0.011239f, 0.016680f, 0.042449f, 0.018901f, -0.044536f, -0.014379f, 0.008266f, -0.008645f, -0.002785f, 0.049981f, 0.011512f, 0.024285f, 0.005886f, -0.004879f, -0.014375f, 0.040845f, 0.001791f, -0.009746f, -0.001983f, -0.015881f, -0.003433f, 0.000670f, 0.013104f, 0.023338f, -0.004728f, 0.001546f, -0.007785f, -0.004375f, -0.004619f, 0.021991f},
  {-0.042590f, -0.018087f, -0.016507f, -0.041151f, -0.012831f, -0.036404f, -0.000067f, 0.009405f, 0.024204f, 0.003107f, -0.016314f, -0.009329f, 0.030821f, 0.018504f, 0.043247f, -0.010277f, 0.014636f, -0.000371f, 0.032000f, 0.021609f, 0.001577f, -0.018388f, -0.041958f, -0.013119f, 0.038646f, -0.001814f, -0.015589f, -0.007721f, -0.045549f, -0.018714f, 0.029001f, 0.011220f, 0.001434f, -0.009111f, 0.005221f, -0.022897f, 0.011463f, 0.040637f, -0.009960f, 0.017166f, 0.005647f, 0.000655f, -0.017227f, 0.004106f, 0.013040f, 0.015539f, -0.009849f, -0.005127f, 0.004147f, 0.045378f, 0.007553f, 0.022028f, 0.033510f, -0.043248f, 0.007049f, 0.012067f, -0.005024f, 0.010393f, -0.012282f, -0.006570f, -0.010118f, -0.012052f, 0.033574f, -0.011103f, -0.001070f, 0.014168f, -0.032671f, -0.014426f, -0.014611f, 0.041728f, 0.020042f, 0.007816f, -0.001509f, 0.001426f, 0.012614f, -0.037846f, 0.037957f, -0.031425f, 0.005757f, -0.001662f, 0.014839f, 0.005390f, -0.009793f, -0.019709f, -0.024111f, 0.009150f, 0.009166f, -0.002632f, 0.020064f, -0.021272f, 0.026192f, -0.022086f, -0.000124f, 0.001526f, -0.003035f, 0.018740f, 0.015233f, 0.001919f, 0.031706f, -0.016092f, -0.009358f, -0.009885f, -0.016538f, -0.023289f, -0.004267f, 0.008384f, -0.002902f, 0.027422f, -0.011756f, 0.016990f, -0.037546f, 0.042008f, -0.018637f, -0.009519f, -0.015008f, -0.038183f, 0.006055f, 0.017433f, -0.015902f, 0.011130f, -0.005207f, -0.016510f, 0.027622f, 0.006140f, -0.021734f, 0.009927f, -0.037665f, 0.004870f, 0.000926f, 0.012349f, 0.018249f, -0.023784f, -0.004459f, 0.009842f, 0.018674f, -0.003601f, -0.001523f, -0.008183f, -0.011918f, 0.011505f, 0.000962f, -0.007247f, 0.003509f, -0.006178f, -0.011234f, 0.002626f, -0.005048f, -0.007679f, -0.002584f, -0.019812f, -0.011489f, -0.029494f, 0.004249f, -0.035534f, 0.007433f, -0.003077f, -0.021507f, 0.032423f, -0.004423f, 0.018452f, -0.020471f, 0.017829f, 0.018785f, 0.035192f, -0.001301f, 0.005942f, -0.002520f, 0.035004f, 0.006419f, 0.016426f, 0.021705f, -0.021147f, -0.026230f, 0.016877f, -0.011458f, 0.012174f, 0.023373f, 0.010034f, 0.001662f, 0.039650f, 0.002433f, 0.003402f, -0.022926f, 0.020802f, -0.003328f, 0.018401f, 0.021199f, 0.029310f, 0.012283f, -0.036360f, 0.000944f, 0.018767f, 0.027834f, -0.002320f, -0.024500f, -0.042468f, -0.002626f, 0.009787f, 0.023299f, -0.013727f, 0.002664f, -0.019244f, -0.001132f, -0.014713f, -0.013225f, 0.048307f, 0.009396f, 0.001037f, -0.006332f, 0.019777f, 0.015960f, 0.006717f, 0.009529f, -0.010627f, 0.002179f, 0.011564f, -0.009347f, -0.007291f, -0.008468f, -0.001193f, -0.039579f, -0.011984f, 0.007379f, -0.004947f, -0.016161f, 0.013123f, -0.029784f, -0.030238f, 0.059775f, 0.034790f, 0.002893f, -0.003097f, 0.013078f, 0.014543f, 0.029258f, 0.009755f, 0.011037f, -0.011610f, -0.033003f, 0.008064f, 0.006529f, -0.025033f, 0.018702f, 0.009556f, 0.000626f, -0.026642f, 0.017663f, 0.022174f, 0.008609f, 0.002330f, -0.000176f, -0.031266f, -0.041881f, 0.007840f, -0.007159f, 0.019632f, 0.004331f, 0.016925f, 0.030113f, 0.006846f, -0.028016f, -0.010453f, 0.001481f, -0.026217f, 0.006242f, 0.035345f, 0.010750f, -0.020384f, 0.019088f, -0.013265f, 0.020742f, -0.000637f, -0.055143f, 0.026748f, 0.032172f, 0.018647f, 0.037989f, -0.034051f, -0.005421f, 0.001120f, -0.032380f, -0.011319f, 0.027450f, -0.020021f, 0.007024f, 0.020680f, -0.020191f, -0.015360f, -0.001392f, 0.006192f, 0.024733f, 0.008882f, -0.007482f, -0.022494f, 0.022766f, -0.013467f, -0.011752f, 0.007503f, 0.013595f, 0.017729f, 0.012716f, 0.048488f, 0.006036f, 0.012724f, -0.003875f, -0.004775f, 0.038507f, -0.014959f, -0.027534f, 0.026695f, 0.001269f, -0.009181f},
};

const float classifier_bias[NUM_LABELS] PROGMEM = {
  -0.001389f,
  0.001389f,
};

#endif
